svm_type one_class
kernel_type rbf
gamma 0.0078125
nr_class 2
total_sv 26
rho 0.540083
SV
0.5400974012085027 1:3 2:78 3:141 4:360 5:172 6:219 
0.5401523726505431 1:1 2:15 3:47 4:157 5:63 6:110 
0.5400413688602047 1:2 2:78 3:16 4:328 5:125 6:312 
0.5401181309038785 1:2 2:94 3:78 4:155 5:109 6:77 
0.5400973104831079 1:3 2:16 3:93 4:280 5:218 6:187 
0.540088544455507 1:1 2:16 3:47 4:172 5:94 6:125 
0.5400958892357677 1:1 2:62 3:93 4:140 5:109 6:47 
0.5000003374740982 1:3 2:47 3:141 4:235 5:172 6:94 
0.5400974443135707 1:2 2:63 3:62 4:171 5:77 6:109 
0.5401113040843916 1:1 2:110 3:31 4:203 5:156 6:172 
0.5383244673614824 1:1 2:32 3:63 4:236 5:157 6:173 
0.5400958204597508 1:2 2:93 3:78 4:125 5:94 6:47 
0.5401569365409658 1:2 2:47 3:78 4:265 5:156 6:187 
0.540165118621343 1:1 2:31 3:31 4:265 5:156 6:234 
0.5400966733789875 1:2 2:47 3:15 4:140 5:124 6:125 
0.5391343028674958 1:3 2:31 3:47 4:219 5:141 6:172 
0.5400974000675123 1:3 2:16 3:15 4:171 5:124 6:156 
0.5400413688602047 1:3 2:63 3:297 4:406 5:312 6:109 
0.5400966662723393 1:1 2:78 3:15 4:124 5:108 6:109 
0.5401645470848338 1:1 2:15 3:15 4:140 5:78 6:125 
0.5401617115901414 1:1 2:16 3:156 4:312 5:234 6:156 
0.5400973952428454 1:1 2:94 3:32 4:141 5:48 6:109 
0.5400973988790964 1:3 2:62 3:93 4:203 5:125 6:110 
0.5401113040843916 1:2 2:32 3:110 4:375 5:235 6:265 
0.5400974444214941 1:3 2:47 3:110 4:172 5:157 6:62 
0.04016134059754389 1:3 2:47 3:141 4:235 5:172 6:94 
