svm_type one_class
kernel_type rbf
gamma 0.0078125
nr_class 2
total_sv 4
rho 3.39549
SV
1 1:0.0053821422 2:0.018837498 3:0.46824637 4:0.69967849 5:0.48708387 6:0.23143212 
0.7564340308232055 1:0.0032348233 2:0.012939293 3:0.44640562 4:0.71813078 5:0.45934491 6:0.27172516 
1 1:0.0027062732 2:0.37887825 3:0.054125465 4:0.60349893 5:0.43300372 6:0.54937347 
0.6435659691767949 1:0.0042737775 2:0.32480709 3:0.094023104 4:0.64106662 5:0.41883019 6:0.54704352 
