svm_type one_class
kernel_type rbf
gamma 0.0078125
nr_class 2
total_sv 25
rho 24.4798
SV
1 1:0.0043383642 2:0.30368549 3:0.034706913 4:0.64641626 5:0.33839241 6:0.61170935 
1 1:0.0038973399 2:0.10912552 3:0.34686325 4:0.72100788 5:0.45598877 6:0.37414463 
1 1:0.015528624 2:0.13975762 3:0.062114497 4:0.71431672 5:0.20187212 6:0.65220222 
1 1:0.00065903629 2:0.43825913 3:0.063267484 4:0.55622663 5:0.50152662 6:0.49295914 
1 1:0.003980811 2:0.051750543 3:0.38613866 4:0.73246922 5:0.43788921 6:0.34633055 
1 1:0.010550601 2:0.27959094 3:0.23211323 4:0.65413728 5:0.51170417 6:0.42202405 
1 1:0.0040597778 2:0.016239111 3:0.42221689 4:0.73076001 5:0.438456 6:0.30854311 
1 1:0.0085643092 2:0.098489555 3:0.36398314 4:0.71940197 5:0.4624727 6:0.35541883 
1 1:0.0068468262 2:0.3663052 3:0.027387305 4:0.60936753 5:0.39369251 6:0.58198022 
1 1:0.0080936512 2:0.32374605 3:0.032374605 4:0.63535162 5:0.35612065 6:0.60297701 
1 1:0.0045253038 2:0.29867005 3:0.18553746 4:0.65164375 5:0.48420751 6:0.4661063 
1 1:0.0082835089 2:0.32305685 3:0.045559299 4:0.63783018 5:0.36861615 6:0.59227089 
1 1:0.020333143 2:0.040666285 3:0.13216543 4:0.75232628 5:0.17283171 6:0.62016085 
1 1:0.0039135122 2:0.093924292 3:0.36787014 4:0.72008624 5:0.46179444 6:0.35221609 
0.5 1:0.017180203 2:0.085901017 3:0.32642386 4:0.73874874 5:0.41232488 6:0.41232488 
1 1:0.0095289968 2:0.31922139 3:0.14293495 4:0.64320728 5:0.46215634 6:0.50027233 
1 1:0.0075247548 2:0.030099019 3:0.22574265 4:0.76752499 5:0.25584166 6:0.54178235 
1 1:0.0042458348 2:0.0042458348 3:0.38637096 4:0.75151275 5:0.3906168 6:0.36514179 
1 1:0.011581415 2:0.22583759 3:0.046325659 4:0.68330347 5:0.27216325 6:0.63697781 
1 1:0.0079528049 2:0.023858415 3:0.17496171 4:0.76346927 5:0.19882012 6:0.58850757 
1 1:0.0043913323 2:0.030739326 3:0.36008925 4:0.75091783 5:0.39082858 6:0.39082858 
1 1:0.010067681 2:0.25672586 3:0.040270724 4:0.66950078 5:0.29699659 6:0.62923006 
1 1:0.0075474385 2:0.030189754 3:0.060379508 4:0.73210153 5:0.090569262 6:0.67172203 
1 1:0.012526451 2:0.21294967 3:0.050105804 4:0.6889548 5:0.26305547 6:0.638849 
1 1:0.0048571167 2:0.0291427 3:0.38371222 4:0.74313885 5:0.41285492 6:0.35942663 
