svm_type one_class
kernel_type rbf
gamma 0.0078125
nr_class 2
total_sv 8
rho 6.98907
SV
1 1:0.0057846973 2:0.18511031 3:0.38757472 4:0.64788609 5:0.57268503 6:0.26031138 
0.7966212264363162 1:0.0017426794 2:0.44961128 3:0.030496889 4:0.54720132 5:0.48010816 6:0.51670443 
1 1:0.0082155097 2:0.057508568 3:0.45185304 4:0.69010282 5:0.5093616 6:0.23824978 
1 1:0.00022728038 2:0.48319809 3:0.017046029 4:0.51638103 5:0.50024412 6:0.499335 
1 1:0.0079084131 2:0.1186262 3:0.063267305 4:0.7196656 5:0.1818935 6:0.65639829 
1 1:0.00033240403 2:0.49029594 3:0.0046536564 4:0.50957538 5:0.4949496 6:0.50492172 
1 1:0.0046434344 2:0.03250404 3:0.38076162 4:0.7429495 5:0.41326566 6:0.36218788 
0.2033787735636838 1:0.0046168327 2:0.055401993 3:0.37858028 4:0.7340764 5:0.43398228 6:0.35549612 
