svm_type one_class
kernel_type rbf
gamma 0.0078125
nr_class 2
total_sv 12
rho 11.9972
SV
1 1:0.002752326 2:0.13211165 3:0.3495454 4:0.70734778 5:0.48165705 6:0.35780238 
1 1:0.0026605532 2:0.11440379 3:0.35917469 4:0.71302827 5:0.47357848 6:0.35385358 
1 1:0.0026035046 2:0.11715771 3:0.32804159 4:0.72377429 5:0.44519929 6:0.39573271 
1 1:0.0034877945 2:0.020926767 3:0.38365739 4:0.74638801 5:0.40458416 6:0.36273062 
1 1:0.0027834212 2:0.072368952 3:0.38967897 4:0.72090609 5:0.46204792 6:0.33122712 
1 1:0.00084933753 2:0.40343533 3:0.10531785 4:0.58264555 5:0.50875318 6:0.47732769 
1 1:0.0027977419 2:0.072741289 3:0.40847032 4:0.71062644 5:0.48121161 6:0.30215613 
1 1:0.0031730366 2:0.012692147 3:0.39345654 4:0.74566361 5:0.40614869 6:0.35220707 
1 1:0.002814903 2:0.042223546 3:0.39690133 4:0.73187479 5:0.43912487 6:0.33497346 
1 1:0.0018078454 2:0.2151336 3:0.24948266 4:0.69240478 5:0.46461627 6:0.44292212 
1 1:0.0034601248 2:0.031141123 3:0.35985297 4:0.75084707 5:0.3909941 6:0.3909941 
1 1:0.0034365276 2:0.11684194 3:0.26461262 4:0.73885343 5:0.38145456 6:0.47424081 
