svm_type one_class
kernel_type rbf
gamma 0.0078125
nr_class 2
total_sv 16
rho 15.4866
SV
1 1:0.004584793 2:0.35302906 3:0.036678344 4:0.61894705 5:0.3897074 6:0.58226871 
1 1:0.019620105 2:0.068670367 3:0.38259204 4:0.72594388 5:0.45126241 6:0.34335183 
1 1:0.0086088619 2:0.060262033 3:0.068870895 4:0.73175326 5:0.12913293 6:0.66288236 
1 1:0.023202543 2:0.046405086 3:0.39444323 4:0.73088011 5:0.44084832 6:0.33643688 
1 1:0.010473645 2:0.041894579 3:0.26184112 4:0.76457607 5:0.3037357 6:0.50273495 
1 1:0.026393586 2:0.052787172 3:0.47508455 4:0.67303645 5:0.52787172 6:0.1979519 
1 1:0.020249596 2:0.070873585 3:0.39486712 4:0.71886065 5:0.4657407 6:0.32399353 
1 1:0.0026641671 2:0.098574182 3:0.43159507 4:0.6793626 5:0.53016925 6:0.24776754 
1 1:0.025175662 2:0.050351325 3:0.31469578 4:0.75526987 5:0.3650471 6:0.44057409 
1 1:0.0083379668 2:0.1500834 3:0.35853257 4:0.69205125 5:0.50861598 6:0.33351867 
1 1:0.0045783495 2:0.36168961 3:0.036626796 4:0.61349884 5:0.39831641 6:0.57687204 
0.5 1:0.0065770973 2:0.33214341 3:0.13811904 4:0.63468988 5:0.47026245 6:0.49657084 
1 1:0.0050877575 2:0.34596751 3:0.12719394 4:0.62579417 5:0.47316145 6:0.49860024 
1 1:0.0092038939 2:0.34054407 3:0.11504867 4:0.63046673 5:0.45559275 6:0.51541806 
1 1:0.0085757175 2:0.32587727 3:0.06860574 4:0.63889095 5:0.39448301 6:0.57028521 
1 1:0.010285394 2:0.34456068 3:0.20056517 4:0.61198092 5:0.54512586 6:0.41141574 
