svm_type one_class
kernel_type rbf
gamma 0.0078125
nr_class 2
total_sv 3
rho 2.49993
SV
1 1:0.0047375278 2:0.056850334 3:0.35057706 4:0.74379187 5:0.4074274 6:0.39321481 
1 1:0.0043535908 2:0.11319336 3:0.30910495 4:0.73140325 5:0.42229831 6:0.42229831 
0.5 1:0.0083627125 2:0.12962204 3:0.30942036 4:0.72337463 5:0.43904241 6:0.41395427 
