svm_type one_class
kernel_type rbf
gamma 0.0078125
nr_class 2
total_sv 3
rho 2.4984
SV
1 1:0.015653689 2:0.18784427 3:0.31307378 4:0.68876232 5:0.50091805 6:0.37568854 
1 1:0.0085623468 2:0.26543275 3:0.1455599 4:0.6764254 5:0.41099265 6:0.5308655 
0.5 1:0.0210924 2:0.1265544 3:0.4113018 4:0.6749568 5:0.5378562 6:0.263655 
