svm_type one_class
kernel_type rbf
gamma 0.0078125
nr_class 2
total_sv 6
rho 5.99445
SV
1 1:0.0026858828 2:0.010743531 3:0.42705536 4:0.73056011 5:0.43779889 6:0.30350475 
1 1:0.00096451077 2:0.37133665 3:0.13213798 4:0.60571276 5:0.50347462 6:0.47357479 
1 1:0.0025757118 2:0.033484254 3:0.38893248 4:0.73922929 5:0.42241674 6:0.35029681 
1 1:0.00091051272 2:0.36784714 3:0.11017204 4:0.61095404 5:0.47801918 6:0.500782 
1 1:0.0032433361 2:0.012973344 3:0.39244367 4:0.74596731 5:0.40541701 6:0.35352364 
1 1:0.0031209187 2:0.32145462 3:0.053055617 4:0.63978832 5:0.37451024 6:0.58673271 
