svm_type one_class
kernel_type rbf
gamma 0.0078125
nr_class 2
total_sv 12
rho 11.3872
SV
1 1:0.0053720756 2:0.16653434 3:0.39753359 4:0.65539322 5:0.56406794 6:0.25785963 
1 1:0.010021318 2:0.39584206 3:0.060127908 4:0.59125776 5:0.45596997 6:0.53112985 
1 1:0.0049941976 2:0.26968667 3:0.069918767 4:0.66922248 5:0.33960544 6:0.59930371 
1 1:0.015055905 2:0.12797519 3:0.40650943 4:0.67751571 5:0.53448462 6:0.27100629 
1 1:0.0065033859 2:0.039020315 3:0.17559142 4:0.76089615 5:0.21461173 6:0.58530473 
1 1:0.0072289839 2:0.10120577 3:0.40843759 4:0.69398245 5:0.50964336 6:0.28554486 
1 1:0.0078596535 2:0.35368441 3:0.1178948 4:0.62091263 5:0.47157921 6:0.50301783 
1 1:0.013934999 2:0.18812248 3:0.076642492 4:0.70371743 5:0.26476497 6:0.62707493 
1 1:0.023115595 2:0.034673393 3:0.18492476 4:0.76281465 5:0.21959816 6:0.57788989 
1 1:0.009734925 2:0.0389397 3:0.16549372 4:0.75932415 5:0.20443342 6:0.59383042 
0.4000000000000004 1:0.0097853635 2:0.073390226 3:0.4011999 4:0.71433154 5:0.47459013 6:0.31313163 
1 1:0.0070781495 2:0.028312598 3:0.46007972 4:0.7007368 5:0.48839232 6:0.24065708 
