svm_type one_class
kernel_type rbf
gamma 0.0078125
nr_class 2
total_sv 14
rho 13.4651
SV
1 1:0.0071793966 2:0.028717586 3:0.51691655 4:0.64614569 5:0.54563414 6:0.12922914 
0.5 1:0.0069790281 2:0.027916112 3:0.50249002 4:0.66300767 5:0.53040614 6:0.16051765 
1 1:0.0089907847 2:0.035963139 3:0.50348394 4:0.65632728 5:0.53944708 6:0.15284334 
1 1:0.0061174953 2:0.061174953 3:0.51386961 4:0.62398452 5:0.57504456 6:0.11011492 
1 1:0.00022147324 2:0.48148283 3:0.017717859 4:0.51802591 5:0.49920069 6:0.50030805 
1 1:0.0086271034 2:0.034508414 3:0.52625331 4:0.62977855 5:0.56076172 6:0.10352524 
1 1:0.0069519919 2:0.062567927 3:0.50054342 4:0.63958326 5:0.56311135 6:0.13903984 
1 1:0.00055166304 2:0.48546347 3:0.01820488 4:0.51414995 5:0.50366835 6:0.49594507 
1 1:0.0065055874 2:0.1561341 3:0.058550287 4:0.70910903 5:0.21468439 6:0.65055874 
1 1:0.0072374514 2:0.028949806 3:0.15922393 4:0.7599324 5:0.18817374 6:0.60070847 
1 1:0.010716815 2:0.042867259 3:0.085734519 4:0.73946022 5:0.12860178 6:0.65372571 
1 1:0.0003387236 2:0.47692282 3:0.022355757 4:0.52231178 5:0.49927858 6:0.49995603 
1 1:0.00021904055 2:0.49349836 3:0.0083235409 4:0.50642175 5:0.5018219 6:0.49809821 
1 1:0.021937 2:0.076779499 3:0.087747999 4:0.73488949 5:0.1645275 6:0.64714149 
