svm_type one_class
kernel_type rbf
gamma 0.0078125
nr_class 2
total_sv 6
rho 5.99734
SV
1 1:0.0031378504 2:0.087859812 3:0.36399065 4:0.72484345 5:0.45185046 6:0.3608528 
1 1:0.0024632036 2:0.14532901 3:0.33253249 4:0.70693944 5:0.4778615 6:0.37440695 
1 1:0.0033457917 2:0.07695321 3:0.34796234 4:0.73607418 5:0.42491555 6:0.38811184 
1 1:0.0030149627 2:0.036179552 3:0.3316459 4:0.75675564 5:0.36782545 6:0.42510974 
1 1:0.0005969194 2:0.42918505 3:0.074018006 4:0.56349192 5:0.50320306 6:0.48947391 
1 1:0.0024267199 2:0.25480559 3:0.16016351 4:0.68190829 5:0.4149691 6:0.52174477 
