svm_type one_class
kernel_type rbf
gamma 0.0078125
nr_class 2
total_sv 24
rho 23.3755
SV
1 1:0.0039135721 2:0.27395005 3:0.086098586 4:0.66922083 5:0.36004863 6:0.58312224 
1 1:0.0039215083 2:0.24313352 3:0.3294067 4:0.63920586 5:0.57254021 6:0.30979916 
1 1:0.0048072479 2:0.30766386 3:0.033650735 4:0.64417121 5:0.3413146 6:0.61052048 
1 1:0.0046702465 2:0.35493873 3:0.088734683 4:0.62114278 5:0.44367342 6:0.5324081 
1 1:0.0028358783 2:0.38000769 3:0.13328628 4:0.59837031 5:0.51329396 6:0.46508403 
1 1:0.0046811329 2:0.018724532 3:0.36512837 4:0.7536624 5:0.3838529 6:0.38853403 
1 1:0.0076913975 2:0.17690214 3:0.40764407 4:0.63838599 5:0.58454621 6:0.23074193 
1 1:0.0050517293 2:0.36877624 3:0.090931128 4:0.61125925 5:0.45970737 6:0.52032812 
0.3999999999999986 1:0.0044179076 2:0.26065655 3:0.30925353 4:0.6361787 5:0.56991008 6:0.32692516 
1 1:0.0042527402 2:0.25091167 3:0.32746099 4:0.63365829 5:0.57837266 6:0.30619729 
1 1:0.0049746319 2:0.18406138 3:0.40791981 4:0.63177825 5:0.59198119 6:0.22385843 
1 1:0.010590464 2:0.042361854 3:0.28594252 4:0.76251338 5:0.32830437 6:0.47657086 
1 1:0.0038614932 2:0.30119647 3:0.065645384 4:0.65259235 5:0.36684185 6:0.58694697 
1 1:0.0049125371 2:0.088425669 3:0.44212834 4:0.67793013 5:0.53055401 6:0.23580178 
1 1:0.0060623877 2:0.024249551 3:0.31524416 4:0.76386086 5:0.33949371 6:0.44861669 
1 1:0.0045394559 2:0.040855103 3:0.36769593 4:0.74447077 5:0.40855103 6:0.37677484 
1 1:0.0055172046 2:0.038620432 3:0.30344626 4:0.76137424 5:0.34206669 6:0.45792799 
1 1:0.0057646703 2:0.14988143 3:0.13258742 4:0.72634846 5:0.28246884 6:0.59376104 
1 1:0.0098228225 2:0.03929129 3:0.10805105 4:0.74653451 5:0.14734234 6:0.63848346 
1 1:0.006890655 2:0.048234585 3:0.46856454 4:0.68217484 5:0.51679912 6:0.2136103 
1 1:0.0043959123 2:0.39123619 3:0.035167298 4:0.59344816 5:0.42640349 6:0.55828086 
1 1:0.0087544331 2:0.026263299 3:0.16633423 4:0.76163568 5:0.19259753 6:0.59530145 
1 1:0.07124705 2:0.49872935 4:0.49872935 5:0.49872935 6:0.49872935 
1 1:0.022216737 2:0.49987659 4:0.49987659 5:0.49987659 6:0.49987659 
