svm_type one_class
kernel_type rbf
gamma 0.0078125
nr_class 2
total_sv 4
rho 3.99968
SV
1 1:0.00532105 2:0.11440257 3:0.35917087 4:0.7130207 5:0.47357345 6:0.35384982 
1 1:0.0078103022 2:0.11715453 3:0.32803269 4:0.72375467 5:0.44518722 6:0.39572198 
1 1:0.0062861076 2:0.10686383 3:0.33630676 4:0.72604543 5:0.44317059 6:0.38973867 
1 1:0.0090163298 2:0.12021773 3:0.33059876 4:0.72130639 5:0.45081649 6:0.39070763 
