svm_type one_class
kernel_type rbf
gamma 0.0078125
nr_class 2
total_sv 6
rho 5.09363
SV
1 1:0.0026911004 2:0.018837702 3:0.46825146 4:0.69968609 5:0.48708916 6:0.23143463 
1 1:0.0032348233 2:0.012939293 3:0.44640562 4:0.71813078 5:0.45934491 6:0.27172516 
0.4490142561876339 1:0.0032160493 2:0.36984567 3:0.12542592 4:0.60783331 5:0.49527159 6:0.48240739 
0.6509857438123659 1:0.0031646837 2:0.012658735 3:0.44622041 4:0.71838321 5:0.45887914 6:0.2721628 
1 1:0.0027062732 2:0.37887825 3:0.054125465 4:0.60349893 5:0.43300372 6:0.54937347 
1 1:0.0042737775 2:0.32480709 3:0.094023104 4:0.64106662 5:0.41883019 6:0.54704352 
