svm_type one_class
kernel_type rbf
gamma 0.0078125
nr_class 2
total_sv 17
rho 15.5795
SV
1 1:0.0053720756 2:0.16653434 3:0.39753359 4:0.65539322 5:0.56406794 6:0.25785963 
1 1:0.0050108477 2:0.39585697 3:0.060130172 4:0.59128003 5:0.45598714 6:0.53114986 
1 1:0.0075285924 2:0.12798607 3:0.40654399 4:0.67757331 5:0.53453006 6:0.27102933 
1 1:0.0065033859 2:0.039020315 3:0.17559142 4:0.76089615 5:0.21461173 6:0.58530473 
1 1:0.0036145628 2:0.10120776 3:0.40844559 4:0.69399605 5:0.50965335 6:0.28555046 
1 1:0.010800245 2:0.043200978 3:0.15120342 4:0.75601712 5:0.1944044 6:0.60481369 
0.3570168109348658 1:0.0038180177 2:0.015272071 3:0.24053512 4:0.77123958 5:0.25580719 6:0.53070447 
1 1:0.0069680067 2:0.18813618 3:0.076648073 4:0.70376867 5:0.26478425 6:0.6271206 
1 1:0.011560114 2:0.034680343 3:0.18496183 4:0.76296754 5:0.21964217 6:0.57800571 
1 1:0.009734925 2:0.0389397 3:0.16549372 4:0.75932415 5:0.20443342 6:0.59383042 
1 1:0.0048928575 2:0.073392862 3:0.40121431 4:0.71435719 5:0.47460717 6:0.31314288 
1 1:0.0070781495 2:0.028312598 3:0.46007972 4:0.7007368 5:0.48839232 6:0.24065708 
1 1:0.0020628875 2:0.46518113 3:0.019597431 4:0.53325641 5:0.48477856 6:0.51365898 
0.2429831890651339 1:0.0027434481 2:0.37585239 3:0.1083662 4:0.6049303 5:0.48421859 6:0.4965641 
1 1:0.0093426328 2:0.014013949 3:0.38771926 4:0.74741063 5:0.40173321 6:0.35969136 
1 1:0.025632601 2:0.49983572 4:0.49983572 5:0.49983572 6:0.49983572 
1 1:0.034462276 2:0.499703 4:0.499703 5:0.499703 6:0.499703 
