svm_type one_class
kernel_type rbf
gamma 0.0078125
nr_class 2
total_sv 4
rho 2.99749
SV
1 1:0.0050399743 2:0.31247841 3:0.055439718 4:0.64511671 5:0.36791813 6:0.589677 
0.5017432052483599 1:0.010330297 2:0.30474377 3:0.067146933 4:0.65080874 5:0.37189071 6:0.5836618 
1 1:0.0045936852 2:0.055124222 3:0.37668218 4:0.73498963 5:0.43180641 6:0.35830744 
0.4982567947516401 1:0.0095927951 2:0.05755677 3:0.36452621 4:0.73864522 5:0.42208298 6:0.37411901 
