svm_type one_class
kernel_type rbf
gamma 0.0078125
nr_class 2
total_sv 12
rho 11.9891
SV
1 1:0.0052821036 2:0.39087566 3:0.042256828 4:0.59423665 5:0.43313249 6:0.55197982 
1 1:0.0052204198 2:0.29495372 3:0.27146183 4:0.62645038 5:0.56641555 6:0.35498855 
1 1:0.00022728038 2:0.48319809 3:0.017046029 4:0.51638103 5:0.50024412 6:0.499335 
1 1:0.015815343 2:0.11861507 3:0.063261371 4:0.71959809 5:0.18187644 6:0.65633672 
1 1:0.0084646275 2:0.11004016 3:0.32588816 4:0.72795796 5:0.43592832 6:0.40206981 
1 1:0.0022459551 2:0.41325574 3:0.035935282 4:0.57721046 5:0.44919102 6:0.54127518 
1 1:0.0076081384 2:0.12933835 3:0.31193367 4:0.72277314 5:0.44127203 6:0.41083947 
1 1:0.00033240403 2:0.49029594 3:0.0046536564 4:0.50957538 5:0.4949496 6:0.50492172 
1 1:0.0024478576 2:0.4038965 3:0.053852866 4:0.58503796 5:0.45774936 6:0.53118509 
1 1:0.0092865684 2:0.032502989 3:0.3807493 4:0.74292547 5:0.41325229 6:0.36217617 
1 1:0.0092333702 2:0.055400221 3:0.37856818 4:0.73405293 5:0.4339684 6:0.35548475 
1 1:0.0081162121 2:0.12985939 3:0.31247416 4:0.72234287 5:0.44233356 6:0.40986871 
