svm_type one_class
kernel_type rbf
gamma 0.0078125
nr_class 2
total_sv 4
rho 3.79605
SV
1 1:0.006470764 2:0.06470764 3:0.37530431 4:0.73119633 5:0.44001195 6:0.35589202 
1 1:0.0026858828 2:0.010743531 3:0.42705536 4:0.73056011 5:0.43779889 6:0.30350475 
0.8000000000000003 1:0.0018210232 2:0.36784668 3:0.1101719 4:0.61095328 5:0.47801858 6:0.50078137 
1 1:0.0062417461 2:0.32144992 3:0.053054842 4:0.63977898 5:0.37450477 6:0.58672413 
