svm_type one_class
kernel_type rbf
gamma 0.0078125
nr_class 2
total_sv 14
rho 13.7871
SV
1 1:0.0039215083 2:0.24313352 3:0.3294067 4:0.63920586 5:0.57254021 6:0.30979916 
1 1:0.0048072479 2:0.30766386 3:0.033650735 4:0.64417121 5:0.3413146 6:0.61052048 
1 1:0.0093401874 2:0.35492712 3:0.08873178 4:0.62112246 5:0.4436589 6:0.53239068 
1 1:0.0056716881 2:0.3800031 3:0.13328467 4:0.59836309 5:0.51328777 6:0.46507842 
1 1:0.0050517293 2:0.36877624 3:0.090931128 4:0.61125925 5:0.45970737 6:0.52032812 
1 1:0.0099488945 2:0.18405455 3:0.40790467 4:0.6317548 5:0.59195922 6:0.22385013 
1 1:0.021177365 2:0.042354729 3:0.28589442 4:0.76238513 5:0.32824915 6:0.4764907 
1 1:0.0077228137 2:0.30118973 3:0.065643916 4:0.65257775 5:0.36683365 6:0.58693384 
1 1:0.0049125371 2:0.088425669 3:0.44212834 4:0.67793013 5:0.53055401 6:0.23580178 
1 1:0.0060623877 2:0.024249551 3:0.31524416 4:0.76386086 5:0.33949371 6:0.44861669 
1 1:0.0055172046 2:0.038620432 3:0.30344626 4:0.76137424 5:0.34206669 6:0.45792799 
0.7999999999999989 1:0.0030228177 2:0.19346033 3:0.34762404 4:0.66804271 5:0.54108437 6:0.32041868 
1 1:0.0087915698 2:0.39122485 3:0.035166279 4:0.59343096 5:0.42639113 6:0.55826468 
1 1:0.017506854 2:0.02626028 3:0.16631511 4:0.76154813 5:0.19257539 6:0.59523302 
