svm_type one_class
kernel_type rbf
gamma 0.0078125
nr_class 2
total_sv 27
rho 26.4601
SV
1 1:0.012061331 2:0.12664398 3:0.45833058 4:0.63321988 5:0.58497455 6:0.1748893 
1 1:0.014357683 2:0.028715366 3:0.51687659 4:0.64609574 5:0.54559196 6:0.12921915 
1 1:0.0074643496 2:0.11942959 3:0.44039662 4:0.65686276 5:0.55982622 6:0.21646614 
1 1:0.013957037 2:0.027914073 3:0.50245332 4:0.66295924 5:0.53036739 6:0.16050592 
1 1:0.026311741 2:0.035082321 3:0.46484075 4:0.69287584 5:0.49992307 6:0.22803509 
1 1:0.012234304 2:0.061171519 3:0.51384076 4:0.6239495 5:0.57501228 6:0.11010874 
1 1:0.0031624516 2:0.37633174 3:0.11384826 4:0.60402826 5:0.49018 6:0.49018 
1 1:0.011798138 2:0.38147314 3:0.14944308 4:0.59383962 5:0.53091622 6:0.44439654 
1 1:0.025873609 2:0.034498145 3:0.52609671 4:0.62959114 5:0.56059485 6:0.10349443 
1 1:0.01209326 2:0.09069945 3:0.48977703 4:0.62884952 5:0.58047648 6:0.13907249 
0.5 1:0.010465755 2:0.14128769 3:0.42386307 4:0.65410968 5:0.56515076 6:0.23024661 
1 1:0.020851945 2:0.062555835 3:0.50044668 4:0.63945965 5:0.56300252 6:0.13901297 
1 1:0.013256084 2:0.026512168 3:0.49710315 4:0.66943224 5:0.52361532 6:0.17232909 
1 1:0.0016549871 2:0.48546288 3:0.018204858 4:0.51414932 5:0.50366774 6:0.49594447 
1 1:0.010644624 2:0.079834683 3:0.45771885 4:0.67061134 5:0.53755353 6:0.21289249 
1 1:0.0080577646 2:0.35454164 3:0.03491698 4:0.61776195 5:0.38945862 6:0.58284497 
1 1:0.0065055874 2:0.1561341 3:0.058550287 4:0.70910903 5:0.21468439 6:0.65055874 
1 1:0.020674665 2:0.093035991 3:0.14472265 4:0.74428793 5:0.23775864 6:0.59956528 
1 1:0.0091673274 2:0.29641025 3:0.082505946 4:0.65699179 5:0.3789162 6:0.57448585 
1 1:0.0093685522 2:0.30291652 3:0.074948418 4:0.6526758 5:0.37786494 6:0.57772739 
1 1:0.0096401745 2:0.3020588 3:0.067481221 4:0.65231847 5:0.36954002 6:0.58483725 
1 1:0.0072374514 2:0.028949806 3:0.15922393 4:0.7599324 5:0.18817374 6:0.60070847 
1 1:0.01664011 2:0.14976099 3:0.11648077 4:0.72384478 5:0.26624176 6:0.60736401 
1 1:0.007998436 2:0.33060202 3:0.087982796 4:0.63720874 5:0.41858482 6:0.54922594 
1 1:0.0084847384 2:0.31110707 3:0.070706153 4:0.64766836 5:0.38181323 6:0.57696221 
1 1:0.008084785 2:0.08084785 3:0.17786527 4:0.75188501 5:0.25871312 6:0.57401974 
1 1:0.021429938 2:0.042859876 3:0.085719753 4:0.73933287 5:0.12857963 6:0.65361311 
