svm_type one_class
kernel_type rbf
gamma 0.0078125
nr_class 2
total_sv 27
rho 25.7663
SV
1 1:0.0045675912 2:0.19183883 3:0.35170452 4:0.66686831 5:0.54354335 6:0.31516379 
1 1:0.008774631 2:0.026323893 3:0.44750618 4:0.71074511 5:0.47383007 6:0.26323893 
1 1:0.0055831083 2:0.016749325 3:0.055831083 4:0.73138719 5:0.072580408 6:0.6755561 
1 1:0.010028118 2:0.040112473 3:0.13036554 4:0.75210886 5:0.17047801 6:0.62174333 
1 1:0.0049910242 2:0.044919218 3:0.054901267 4:0.72868954 5:0.099820485 6:0.67378827 
1 1:0.0068294796 2:0.081953755 3:0.48489305 4:0.64197108 5:0.5668468 6:0.15707803 
1 1:0.0097091955 2:0.16505632 3:0.37865862 4:0.66993449 5:0.54371495 6:0.29127586 
1 1:0.011230994 2:0.089847949 3:0.12354093 4:0.74124558 5:0.21338888 6:0.61770465 
1 1:0.0045910701 2:0.3994231 3:0.036728561 4:0.58765698 5:0.43615166 6:0.55092842 
1 1:0.012275715 2:0.073654292 3:0.40509861 4:0.71199149 5:0.4787529 6:0.30689289 
0.5928311708185463 1:0.0051232224 2:0.13320378 3:0.37911846 4:0.69163503 5:0.51232224 6:0.31251657 
1 1:0.0068999985 2:0.13799997 3:0.048299989 4:0.71069984 5:0.18629996 6:0.66239985 
0.4071688291814538 1:0.0094779279 2:0.085301351 3:0.16112477 4:0.74875631 5:0.24642613 6:0.58763153 
1 1:0.0009575158 2:0.43949975 3:0.080431327 4:0.55344413 5:0.51993108 6:0.47301281 
1 1:0.01067217 2:0.042688681 3:0.16008255 4:0.75772408 5:0.20277123 6:0.59764153 
1 1:0.011282342 2:0.3497526 3:0.14667045 4:0.62052881 5:0.49642305 6:0.47385837 
1 1:0.0077916033 2:0.02337481 3:0.41295498 4:0.73241071 5:0.43632979 6:0.31945574 
1 1:0.0079034716 2:0.031613886 3:0.44259441 4:0.71131245 5:0.4742083 6:0.26871803 
1 1:0.0059128139 2:0.017738442 3:0.43754823 4:0.72136329 5:0.45528667 6:0.28381507 
1 1:0.0087857996 2:0.035143198 3:0.43928998 4:0.71164976 5:0.47443318 6:0.27235979 
1 1:0.0045445626 2:0.29085201 3:0.072713002 4:0.65896158 5:0.36356501 6:0.58624858 
1 1:0.007326843 2:0.41763005 3:0.095248959 4:0.57149375 5:0.51287901 6:0.47624479 
0.8000000000000007 1:0.0046318142 2:0.055581771 3:0.39370421 4:0.72719483 5:0.44928598 6:0.33349062 
1 1:0.0073095978 2:0.087715174 3:0.080405576 4:0.73095978 5:0.16812075 6:0.65055421 
1 1:0.0046155539 2:0.027693324 3:0.41539986 4:0.72925752 5:0.44309318 6:0.31385767 
1 1:0.0024937578 2:0.49999845 4:0.49999845 5:0.49999845 6:0.49999845 
1 1:0.018864567 2:0.49991102 4:0.49991102 5:0.49991102 6:0.49991102 
