svm_type one_class
kernel_type rbf
gamma 0.0078125
nr_class 2
total_sv 17
rho 16.1807
SV
1 1:0.0099816755 2:0.04491754 3:0.054899215 4:0.72866231 5:0.099816755 6:0.6737631 
0.1999999999999993 1:0.009139569 2:0.31988491 3:0.10967483 4:0.64433961 5:0.42955974 6:0.53466479 
1 1:0.0098899681 2:0.33625891 3:0.1236246 4:0.63295796 5:0.45988352 6:0.50933336 
1 1:0.013658004 2:0.081948022 3:0.48485913 4:0.64192617 5:0.56680715 6:0.15706704 
1 1:0.019415646 2:0.16503299 3:0.37860509 4:0.66983978 5:0.54363808 6:0.29123469 
1 1:0.022457739 2:0.089830954 3:0.12351756 4:0.74110537 5:0.21334852 6:0.61758781 
1 1:0.00918185 2:0.39941047 3:0.0367274 4:0.5876384 5:0.43613787 6:0.550911 
1 1:0.018953302 2:0.085289859 3:0.16110307 4:0.74865543 5:0.24639293 6:0.58755237 
1 1:0.0009575158 2:0.43949975 3:0.080431327 4:0.55344413 5:0.51993108 6:0.47301281 
1 1:0.01067217 2:0.042688681 3:0.16008255 4:0.75772408 5:0.20277123 6:0.59764153 
1 1:0.015581788 2:0.023372682 3:0.41291738 4:0.73234402 5:0.43629006 6:0.31942665 
1 1:0.0079034716 2:0.031613886 3:0.44259441 4:0.71131245 5:0.4742083 6:0.26871803 
1 1:0.0059128139 2:0.017738442 3:0.43754823 4:0.72136329 5:0.45528667 6:0.28381507 
1 1:0.0087857996 2:0.035143198 3:0.43928998 4:0.71164976 5:0.47443318 6:0.27235979 
1 1:0.0090888437 2:0.290843 3:0.072710749 4:0.65894117 5:0.36355375 6:0.58623042 
1 1:0.014652506 2:0.41759643 3:0.09524129 4:0.57144774 5:0.51283772 6:0.47620645 
1 1:0.0092308129 2:0.027692439 3:0.41538658 4:0.72923422 5:0.44307902 6:0.31384764 
