svm_type one_class
kernel_type rbf
gamma 0.0078125
nr_class 2
total_sv 2
rho 1.99719
SV
1 1:0.0050993867 2:0.38755339 3:0.096888347 4:0.59662824 5:0.48444173 6:0.49973989 
1 1:0.024666933 2:0.037000399 3:0.49333865 4:0.66600718 5:0.53033905 6:0.17266853 
