svm_type one_class
kernel_type rbf
gamma 0.0078125
nr_class 2
total_sv 4
rho 3.79849
SV
0.8000000000000003 1:0.0025504562 2:0.23209151 3:0.23209151 4:0.6860727 5:0.46418302 6:0.45398119 
1 1:0.0031378504 2:0.087859812 3:0.36399065 4:0.72484345 5:0.45185046 6:0.3608528 
1 1:0.0060298432 2:0.036179059 3:0.33164138 4:0.75674532 5:0.36782043 6:0.42510394 
1 1:0.0011938382 2:0.42918482 3:0.074017967 4:0.56349162 5:0.50320279 6:0.48947365 
