svm_type one_class
kernel_type rbf
gamma 0.0078125
nr_class 2
total_sv 7
rho 6.28938
SV
1 1:0.0086088619 2:0.060262033 3:0.068870895 4:0.73175326 5:0.12913293 6:0.66288236 
1 1:0.0010368381 2:0.45309826 3:0.045102458 4:0.5438216 5:0.49820072 6:0.49871914 
1 1:0.013200242 2:0.052800967 3:0.47520871 4:0.67321233 5:0.52800967 6:0.19800363 
1 1:0.0008431898 2:0.46501918 3:0.031198023 4:0.53331755 5:0.4962172 6:0.50211953 
1 1:0.0026641671 2:0.098574182 3:0.43159507 4:0.6793626 5:0.53016925 6:0.24776754 
0.6934777782710675 1:0.0030942444 2:0.41153451 3:0.017018344 4:0.57707658 5:0.42855285 6:0.56005824 
0.6065222217289332 1:0.0079313265 2:0.015862653 3:0.36880668 4:0.75347602 5:0.38466933 6:0.38466933 
