svm_type one_class
kernel_type rbf
gamma 0.0078125
nr_class 2
total_sv 19
rho 18.5855
SV
1 1:0.0056010325 2:0.016803097 3:0.47608776 4:0.69452803 5:0.49289086 6:0.21844027 
1 1:0.0092775716 2:0.30152108 3:0.27832715 4:0.61695851 5:0.57984822 6:0.33863136 
1 1:0.024380577 2:0.032507436 3:0.40634295 4:0.7314173 5:0.43885038 6:0.32507436 
1 1:0.0046751436 2:0.27583347 3:0.088827729 4:0.66854554 5:0.3646612 6:0.57971781 
1 1:0.0029505458 2:0.18293384 3:0.33636222 4:0.68157608 5:0.51929606 6:0.34521386 
0.5999999999999979 1:0.0095999754 2:0.29759924 3:0.10079974 4:0.65759832 5:0.39839898 6:0.55679857 
1 1:0.00474216 2:0.29401392 3:0.05216376 4:0.65441808 5:0.34617768 6:0.60225432 
1 1:0.0036126988 2:0.3143048 3:0.24566352 4:0.6213842 5:0.55996832 6:0.37572068 
1 1:0.026461777 2:0.035282369 3:0.088205922 4:0.74092975 5:0.12348829 6:0.65272383 
1 1:0.010783434 2:0.27497757 3:0.29654444 4:0.63083089 5:0.57152201 6:0.33428646 
1 1:0.012522085 2:0.13356891 3:0.34227033 4:0.70958483 5:0.47583924 6:0.3673145 
1 1:0.0091098449 2:0.25507566 3:0.059213992 4:0.67412852 5:0.31428965 6:0.61491453 
1 1:0.007858804 2:0.32221096 3:0.062870432 4:0.64049253 5:0.3850814 6:0.57762209 
1 1:0.012294153 2:0.35653043 3:0.057372713 4:0.61880569 5:0.41390314 6:0.56143298 
1 1:0.01559689 2:0.36392743 3:0.051989632 4:0.61347766 5:0.41591706 6:0.56148803 
1 1:0.027558041 2:0.055116081 3:0.45470767 4:0.68895102 5:0.50982375 6:0.23424335 
1 1:0.0046880723 2:0.20158711 3:0.37035771 4:0.64695398 5:0.57194482 6:0.27659627 
1 1:0.013456162 2:0.30500634 3:0.035883099 4:0.64589579 5:0.34088944 6:0.61001269 
1 1:0.014307956 2:0.30046707 3:0.038154549 4:0.64862734 5:0.33862162 6:0.61047279 
