svm_type one_class
kernel_type rbf
gamma 0.0078125
nr_class 2
total_sv 4
rho 3.99709
SV
1 1:0.0042204614 2:0.016881845 3:0.43048706 4:0.72591935 5:0.4473689 6:0.29543229 
1 1:0.011655518 2:0.39628762 3:0.13986622 4:0.58277592 5:0.53615384 6:0.4429097 
1 1:0.010124928 2:0.020249855 3:0.38980971 4:0.74418218 5:0.41005957 6:0.35437247 
1 1:0.018020049 2:0.27030074 3:0.16218045 4:0.67274851 5:0.43248119 6:0.51056807 
