svm_type one_class
kernel_type rbf
gamma 0.0078125
nr_class 2
total_sv 45
rho 44.6485
SV
1 1:0.0056010325 2:0.016803097 3:0.47608776 4:0.69452803 5:0.49289086 6:0.21844027 
1 1:0.0041283209 2:0.34677896 3:0.041283209 4:0.62337646 5:0.38806217 6:0.58209325 
1 1:0.0070986285 2:0.1490712 3:0.42591771 4:0.64597519 5:0.57498891 6:0.22005748 
1 1:0.0046389355 2:0.30153081 3:0.27833613 4:0.61697843 5:0.57986694 6:0.33864229 
1 1:0.0097275528 2:0.038910211 3:0.47665009 4:0.6809287 5:0.5155603 6:0.20427861 
1 1:0.010497278 2:0.04198911 3:0.10497278 4:0.74530671 5:0.14696189 6:0.64033393 
1 1:0.0085240001 2:0.17048 3:0.392104 4:0.65634801 5:0.56258401 6:0.264244 
1 1:0.004833005 2:0.01933202 3:0.20781921 4:0.76844779 5:0.22715123 6:0.56062858 
1 1:0.0055546127 2:0.022218451 3:0.33327676 4:0.76098194 5:0.35549521 6:0.42770518 
1 1:0.005084534 2:0.015253602 3:0.35591738 4:0.75759556 5:0.37117098 6:0.40167818 
1 1:0.0081290067 2:0.032516027 3:0.40645034 4:0.73161061 5:0.43896636 6:0.32516027 
1 1:0.0087857996 2:0.035143198 3:0.43928998 4:0.71164976 5:0.47443318 6:0.27235979 
1 1:0.017603561 2:0.070414242 3:0.21124273 4:0.7569531 5:0.28165697 6:0.54571038 
1 1:0.0049753707 2:0.019901483 3:0.30847298 4:0.76620709 5:0.32837447 6:0.4577341 
1 1:0.00474216 2:0.29401392 3:0.05216376 4:0.65441808 5:0.34617768 6:0.60225432 
1 1:0.0046700937 2:0.26152525 3:0.31756637 4:0.63046265 5:0.57909162 6:0.31289628 
1 1:0.0088233386 2:0.035293354 3:0.088233386 4:0.74116044 5:0.12352674 6:0.65292706 
0.6999999999999957 1:0.0053919522 2:0.27498956 3:0.29655737 4:0.6308584 5:0.57154693 6:0.33430103 
1 1:0.0046292328 2:0.2407201 3:0.060180026 4:0.68049722 5:0.30090013 6:0.62031719 
1 1:0.0037409392 2:0.17956508 3:0.40776237 4:0.63595966 5:0.58732745 6:0.22819729 
1 1:0.0048203548 2:0.019281419 3:0.39526909 4:0.74233464 5:0.41455051 6:0.34706555 
1 1:0.0045550642 2:0.2550836 3:0.059215835 4:0.6741495 5:0.31429943 6:0.61493367 
1 1:0.0032588507 2:0.032588507 3:0.4432037 4:0.71042946 5:0.47579221 6:0.26722576 
1 1:0.003929493 2:0.32221843 3:0.062871888 4:0.64050736 5:0.38509032 6:0.57763547 
1 1:0.0050072658 2:0.020029063 3:0.35551587 4:0.75609714 5:0.37554494 6:0.40058126 
1 1:0.0040983262 2:0.35655438 3:0.057376567 4:0.61884726 5:0.41393095 6:0.56147069 
1 1:0.0051995254 2:0.36396678 3:0.051995254 4:0.613544 5:0.41596203 6:0.56154874 
1 1:0.0039757425 2:0.27035049 3:0.063611879 4:0.66792473 5:0.33396237 6:0.60431285 
1 1:0.0054174488 2:0.027087244 3:0.35755162 4:0.75302538 5:0.38463886 6:0.39547376 
1 1:0.0074124932 2:0.029649973 3:0.14083737 4:0.7560743 5:0.17048734 6:0.61523693 
1 1:0.0067973756 2:0.17673177 3:0.10875801 4:0.71372444 5:0.28548978 6:0.60496643 
1 1:0.013782946 2:0.055131785 3:0.45483722 4:0.68914731 5:0.50996901 6:0.23431008 
1 1:0.0063171055 2:0.13265922 3:0.4548316 4:0.63171055 5:0.58749081 6:0.17687895 
1 1:0.0060323111 2:0.18700165 3:0.084452356 4:0.7057804 5:0.271454 6:0.62132805 
1 1:0.0045687828 2:0.3974841 4:0.5848042 5:0.3974841 6:0.5848042 
1 1:0.0049321562 2:0.38964034 3:0.12330391 4:0.59185875 5:0.51294425 6:0.46855484 
1 1:0.0046880723 2:0.20158711 3:0.37035771 4:0.64695398 5:0.57194482 6:0.27659627 
1 1:0.0048083036 2:0.37985599 3:0.11539929 4:0.60103795 5:0.49525527 6:0.48563866 
1 1:0.0044857484 2:0.30503089 3:0.035885987 4:0.64594777 5:0.34091688 6:0.61006179 
1 1:0.0047697526 2:0.30049442 3:0.038158021 4:0.64868636 5:0.33865244 6:0.61052834 
1 1:0.0061021002 2:0.37833021 3:0.091531503 4:0.60410792 5:0.46986172 6:0.51257642 
1 1:0.018178814 2:0.49991738 4:0.49991738 5:0.49991738 6:0.49991738 
1 1:0.035691531 2:0.49968143 4:0.49968143 5:0.49968143 6:0.49968143 
1 1:0.0086203693 2:0.49998142 4:0.49998142 5:0.49998142 6:0.49998142 
1 1:0.07124705 2:0.49872935 4:0.49872935 5:0.49872935 6:0.49872935 
