svm_type one_class
kernel_type rbf
gamma 0.0078125
nr_class 2
total_sv 8
rho 7.68646
SV
1 1:0.0015965287 2:0.44223845 3:0.054281976 4:0.5531972 5:0.49652043 6:0.49891522 
1 1:0.0040597778 2:0.016239111 3:0.42221689 4:0.73076001 5:0.438456 6:0.30854311 
1 1:0.010168148 2:0.040672592 3:0.13218592 4:0.75244295 5:0.17285851 6:0.62025702 
1 1:0.00016925945 2:0.48526686 3:0.016587427 4:0.51437948 5:0.50185428 6:0.49779206 
1 1:3.0234725e-005 2:0.49896367 3:0.00099774594 4:0.50103475 5:0.49996142 6:0.50003701 
0.7000000000000002 1:0.0099578925 2:0.019915785 3:0.38337886 4:0.74684193 5:0.40329464 6:0.36346307 
1 1:0.0042458348 2:0.0042458348 3:0.38637096 4:0.75151275 5:0.3906168 6:0.36514179 
1 1:0.0075474385 2:0.030189754 3:0.060379508 4:0.73210153 5:0.090569262 6:0.67172203 
